5 16
RNN -0.09638158156264331 -0.0484775062003282 0.05359870414400775 -0.07150932237998603 -0.0002889348073804032 0.18283009127919098 -0.11800736202547446 -0.1370083733166102 0.012532317167721907 0.1710292902063248 0.11573846433148144 -0.14694517303220372 -0.19215504586376775 0.1553974599173567 -0.2228873925937534 0.15913871653426775
LSTM -0.1639959618984863 0.23938948056549497 -0.006642558018223443 -0.08966585773413982 0.19544103336989338 -0.0341794587733707 -0.029775326690643644 -0.016772308375202494 0.1597083242935156 -0.04257017464070484 -0.07821329413161154 -0.06407584742319655 0.06893147243179826 -0.007279083863608926 0.10994424776587225 -0.20395394345802126
GRU -0.15544906701372135 -0.2242585502514135 0.24436345401510895 -0.0015428359526230562 0.23100423615289423 -0.06965824215575656 -0.1868072414757735 -0.0483774680273476 -0.1802242145184364 0.03172935068531413 -0.03155951359277065 0.12369613539028212 0.10280769671150414 0.14717939583832246 -0.21368289598722157 0.23394514556399137
BILSTM 0.0428419506586461 0.14480839824241548 -0.049421444907181755 0.10531034009980317 -0.03156987854666227 -0.01670080089853676 0.2190547558972995 -0.04906466684757349 -0.19113804853489186 -0.20443615895025702 0.2042561606450669 -0.16773543049186596 0.037784316235665916 0.117632465152479 -0.0794009363632528 -0.2291859263149178
CNN -0.0532632003331191 0.08109928477415529 0.16736492287052718 0.06003537866770914 0.15753349206069495 0.06494100350252685 0.19895115576951755 -0.17866056136805136 0.1429922230984748 -0.17311748596284215 -0.0679649180339269 0.07317753964892332 -0.07298264843857777 -0.2134783246245212 0.01928861035082019 -0.2367835717007128
